1
10
2
5
10,5#0.22097176,-0.2772938,-0.011034191,0.19789925,0.27310473,-0.002072513,0.23014218,0.021069646,0.24307519,-0.14032002,0.13413686,0.00019904971,0.10732478,-0.08370975,-0.2691019,0.17053816,-0.0043630004,0.16998062,-0.028576553,-0.073028475,0.20133907,-0.16570587,0.1308592,0.16456112,0.07749632,-0.20527604,-0.054853037,-0.24860653,-0.11285864,-0.067493185,-0.1703991,-0.009854227,0.09434995,0.18937612,-0.20452903,-0.17977661,-0.047478825,-0.22615308,-0.10184792,0.07719228,-0.2712729,0.1588181,-0.21100539,-0.0011670887,0.07798177,-0.018961012,0.0032315254,-0.0043551326,-0.057434037,-0.072646305
5,2#0.059741944,-0.013419062,-0.1695998,-0.2663973,0.00957641,0.12125695,0.07005766,-0.010489225,0.07529655,-0.14841214
5,5#-0.28849542,0.2483114,0.21251273,0.11708531,-0.11300683,-0.074064955,0.13690132,0.06879932,-0.060162023,0.20759499,-0.2864015,0.046283066,-0.11218622,-0.23684257,-0.13995703,0.21628445,-0.27200347,0.03575471,-0.112914145,-0.019524544,0.28555608,-0.2828328,0.005777061,0.18408337,0.1628786
5#0.14335105,-0.033405095,-0.1105136,0.041188866,-0.18568784
2#0.17093033,0.24231637
relu
sigmoid
