1
10
2
5
10,5#-0.27896097,0.090511054,-0.23294806,0.038825154,-0.050426394,0.25910777,0.20605665,-0.1931617,-0.17013016,0.076194495,-0.09592545,0.04215595,0.29970306,-0.019815952,-0.045048386,-0.11011127,0.07765174,-0.08308482,-0.099402234,0.006933123,0.25444108,0.059620798,0.09977311,0.09310591,-0.024501085,0.1803664,0.2923367,0.18005714,-0.038433254,0.16801664,-0.02219066,-0.020026028,0.13259676,-0.18108967,0.290554,0.2652492,0.1925424,0.2756524,0.2938224,-0.25585914,-0.1027834,-0.25677997,0.24110109,-0.0317201,0.06845826,-0.10548292,-0.04632196,0.07751548,0.071256995,-0.06069468
5,2#-0.1834307,-0.1861167,0.017320931,-0.19540817,0.1291332,0.10308668,-0.24281353,0.14221439,0.19475627,-0.16056798
5,5#0.24620014,-0.17179428,0.08451697,-0.103567034,0.12683508,0.004855722,0.09701344,0.15881947,-0.035631597,0.13114163,0.06690052,-0.12576213,-0.2595214,-0.20795482,0.29012972,0.29864174,-0.25108397,-0.2575571,-0.10126555,0.25789124,-0.031481266,-0.0822283,-0.28640443,0.16123745,0.11116856
5#0.278727,-0.11907084,0.26525766,0.18578252,-0.12468174
2#-0.23621929,-0.03562045
